<?xml version="1.0"?>
<opencv_storage>
<stage2>
  <maxWeakCount>7</maxWeakCount>
  <stageThreshold>-1.8677902221679688e+00</stageThreshold>
  <weakClassifiers>
    <_>
      <internalNodes>
        0 -1 64470 2.0768873393535614e-02</internalNodes>
      <leafValues>
        -8.3501750230789185e-01 6.1194032430648804e-01</leafValues></_>
    <_>
      <internalNodes>
        0 -1 3958 1.9147917628288269e-02</internalNodes>
      <leafValues>
        -5.8715236186981201e-01 5.9927588701248169e-01</leafValues></_>
    <_>
      <internalNodes>
        0 -1 1235182 4.9008544920070563e-06</internalNodes>
      <leafValues>
        3.5918250679969788e-01 -8.1749856472015381e-01</leafValues></_>
    <_>
      <internalNodes>
        0 -1 60035 1.1605445251916535e-05</internalNodes>
      <leafValues>
        2.5748115777969360e-01 -7.3241680860519409e-01</leafValues></_>
    <_>
      <internalNodes>
        0 -1 61103 1.1567443834792357e-05</internalNodes>
      <leafValues>
        3.0621454119682312e-01 -7.1954977512359619e-01</leafValues></_>
    <_>
      <internalNodes>
        0 -1 1235180 -1.0489797205082141e-05</internalNodes>
      <leafValues>
        -8.6964327096939087e-01 1.8541088700294495e-01</leafValues></_>
    <_>
      <internalNodes>
        0 -1 592464 -2.8217008337378502e-02</internalNodes>
      <leafValues>
        6.1266970634460449e-01 -3.2558947801589966e-01</leafValues></_></weakClassifiers></stage2>
</opencv_storage>
