<?xml version="1.0"?>
<opencv_storage>
<stage1>
  <maxWeakCount>6</maxWeakCount>
  <stageThreshold>-2.1694922447204590e+00</stageThreshold>
  <weakClassifiers>
    <_>
      <internalNodes>
        0 -1 1241765 2.2694850340485573e-02</internalNodes>
      <leafValues>
        -8.2006078958511353e-01 6.8970811367034912e-01</leafValues></_>
    <_>
      <internalNodes>
        0 -1 3 4.4335456550470553e-06</internalNodes>
      <leafValues>
        4.5157408714294434e-01 -8.6297452449798584e-01</leafValues></_>
    <_>
      <internalNodes>
        0 -1 448520 1.3231633231043816e-02</internalNodes>
      <leafValues>
        -5.1001638174057007e-01 6.5078669786453247e-01</leafValues></_>
    <_>
      <internalNodes>
        0 -1 1235182 2.9341461413423531e-05</internalNodes>
      <leafValues>
        2.6441663503646851e-01 -8.1818258762359619e-01</leafValues></_>
    <_>
      <internalNodes>
        0 -1 1235182 -9.5521172625012696e-06</internalNodes>
      <leafValues>
        -8.1507313251495361e-01 3.7836322188377380e-01</leafValues></_>
    <_>
      <internalNodes>
        0 -1 63075 -1.2719348073005676e-02</internalNodes>
      <leafValues>
        4.6337881684303284e-01 -4.9397522211074829e-01</leafValues></_></weakClassifiers></stage1>
</opencv_storage>
